#include <math.h>
#include <string.h>
double sigmoid(double x) {
    if (x < 0.0) {
        double z = exp(x);
        return z / (1.0 + z);
    }
    return 1.0 / (1.0 + exp(-x));
}
void score(double * input, double * output) {
    double var0;
    if (input[4] > 27.016645326504484) {
        var0 = -0.08911358831449921;
    } else {
        var0 = 0.08340605526663505;
    }
    double var1;
    if (input[4] > 27.016645326504484) {
        var1 = -0.0848289855587549;
    } else {
        var1 = 0.07937611656452485;
    }
    double var2;
    if (input[4] > 27.016645326504484) {
        var2 = -0.08104823389967102;
    } else {
        var2 = 0.0757847577676223;
    }
    double var3;
    if (input[4] > 27.016645326504484) {
        var3 = -0.07768179341677088;
    } else {
        var3 = 0.07255668375960005;
    }
    double var4;
    if (input[4] > 27.016645326504484) {
        var4 = -0.0746597822563446;
    } else {
        var4 = 0.06963246846180698;
    }
    double var5;
    if (input[4] > 27.016645326504484) {
        var5 = -0.07192683281679545;
    } else {
        var5 = 0.06696461246927643;
    }
    double var6;
    if (input[4] > 27.016645326504484) {
        var6 = -0.06943844113852618;
    } else {
        var6 = 0.06451471013112432;
    }
    double var7;
    if (input[4] > 27.016645326504484) {
        var7 = -0.06715845113096745;
    } else {
        var7 = 0.062251345548488914;
    }
    double var8;
    if (input[3] > 0.04669593298037738) {
        var8 = -0.06396173188568016;
    } else {
        var8 = 0.06227653905389158;
    }
    double var9;
    if (input[4] > 27.016645326504484) {
        var9 = -0.06371243778148436;
    } else {
        var9 = 0.0587956130134691;
    }
    double var10;
    if (input[3] > 0.04669593298037738) {
        var10 = -0.06075871295900553;
    } else {
        var10 = 0.05901285636546916;
    }
    double var11;
    if (input[4] > 27.016645326504484) {
        var11 = -0.06073372970179102;
    } else {
        var11 = 0.05576928102977955;
    }
    double var12;
    if (input[3] > 0.04669593298037738) {
        var12 = -0.05795775127767419;
    } else {
        var12 = 0.05614384872893499;
    }
    double var13;
    if (input[4] > 27.016645326504484) {
        var13 = -0.058121050631850614;
    } else {
        var13 = 0.05308138762879081;
    }
    double var14;
    if (input[3] > 0.04669593298037738) {
        var14 = -0.05547322980590224;
    } else {
        var14 = 0.053587672413756886;
    }
    double var15;
    if (input[4] > 27.016645326504484) {
        var15 = -0.055798629620021904;
    } else {
        var15 = 0.05066391265320968;
    }
    double var16;
    if (input[3] > 0.04669593298037738) {
        var16 = -0.053240524561793984;
    } else {
        var16 = 0.051282637569726924;
    }
    double var17;
    if (input[4] > 27.016645326504484) {
        var17 = -0.053708729361263065;
    } else {
        var17 = 0.048465200718640675;
    }
    double var18;
    if (input[3] > 0.04669593298037738) {
        var18 = -0.05121004837249972;
    } else {
        var18 = 0.04918155382591016;
    }
    double var19;
    if (input[0] > 0.8208853118712275) {
        var19 = -0.06027036957988629;
    } else {
        var19 = 0.040669497101607915;
    }
    double var20;
    if (input[4] > 27.016645326504484) {
        var20 = -0.05113678681783299;
    } else {
        var20 = 0.0458382416480716;
    }
    double var21;
    if (input[1] > 0.8207142857142858) {
        var21 = -0.055419700856334575;
    } else {
        var21 = 0.041893018366560925;
    }
    double var22;
    if (input[3] > 0.04669593298037738) {
        var22 = -0.048064303450167455;
    } else {
        var22 = 0.04630549877142151;
    }
    double var23;
    if (input[1] > 0.8207142857142858) {
        var23 = -0.05355084767128371;
    } else {
        var23 = 0.04016328447385514;
    }
    double var24;
    if (input[4] > 27.016645326504484) {
        var24 = -0.048350900832581506;
    } else {
        var24 = 0.04283845501409831;
    }
    double var25;
    if (input[3] > 0.04669593298037738) {
        var25 = -0.04609010711373426;
    } else {
        var25 = 0.04429882028223994;
    }
    double var26;
    if (input[1] > 0.8207142857142858) {
        var26 = -0.051784435334858374;
    } else {
        var26 = 0.038427013812818676;
    }
    double var27;
    if (input[0] > 0.8208853118712275) {
        var27 = -0.05428927156100778;
    } else {
        var27 = 0.035184905787202396;
    }
    double var28;
    if (input[4] > 30.934134217067115) {
        var28 = -0.061172530795082725;
    } else {
        var28 = 0.031211968598884827;
    }
    double var29;
    if (input[3] > 0.04757811467434294) {
        var29 = -0.05088308884597229;
    } else {
        var29 = 0.035925187837379746;
    }
    double var30;
    if (input[0] > 0.8208853118712275) {
        var30 = -0.05291265130063147;
    } else {
        var30 = 0.03371502852616076;
    }
    double var31;
    if (input[4] > 30.934134217067115) {
        var31 = -0.05999409269139148;
    } else {
        var31 = 0.029104167378535203;
    }
    double var32;
    if (input[1] > 0.8207142857142858) {
        var32 = -0.04932268892166683;
    } else {
        var32 = 0.03479579723766289;
    }
    double var33;
    if (input[3] > 0.04757811467434294) {
        var33 = -0.049065480923080496;
    } else {
        var33 = 0.03356210116247487;
    }
    double var34;
    if (input[0] > 0.8208853118712275) {
        var34 = -0.05105610545397696;
    } else {
        var34 = 0.03152696418335902;
    }
    double var35;
    if (input[4] > 27.016645326504484) {
        var35 = -0.042940881761882814;
    } else {
        var35 = 0.03640793847005099;
    }
    double var36;
    if (input[1] > 0.8207142857142858) {
        var36 = -0.047578998811251466;
    } else {
        var36 = 0.032626153367321026;
    }
    double var37;
    if (input[3] > 0.04757811467434294) {
        var37 = -0.04756675794363666;
    } else {
        var37 = 0.03189646536821392;
    }
    double var38;
    if (input[0] > 0.8208853118712275) {
        var38 = -0.049280601179671854;
    } else {
        var38 = 0.029571185263918026;
    }
    double var39;
    if (input[3] > 0.05087765339217774) {
        var39 = -0.06110071131433542;
    } else {
        var39 = 0.029607138805585066;
    }
    double var40;
    if (input[1] > 0.8207142857142858) {
        var40 = -0.045839899636687664;
    } else {
        var40 = 0.030512736610438036;
    }
    double var41;
    if (input[3] > 0.04757811467434294) {
        var41 = -0.045709422649306455;
    } else {
        var41 = 0.02959351202958127;
    }
    double var42;
    if (input[4] > 27.016645326504484) {
        var42 = -0.04009417535402844;
    } else {
        var42 = 0.03291033542540515;
    }
    double var43;
    if (input[0] > 0.8208853118712275) {
        var43 = -0.04764485909213878;
    } else {
        var43 = 0.02775298590016692;
    }
    double var44;
    if (input[1] > 0.8207142857142858) {
        var44 = -0.04432038403879397;
    } else {
        var44 = 0.028693542284126152;
    }
    double var45;
    if (input[3] > 0.04757811467434294) {
        var45 = -0.04444283533980481;
    } else {
        var45 = 0.028248727722792806;
    }
    double var46;
    if (input[4] > 26.352339181286553) {
        var46 = -0.03315356653071861;
    } else {
        var46 = 0.03622313376542363;
    }
    double var47;
    if (input[0] > 0.8208853118712275) {
        var47 = -0.04599347082724985;
    } else {
        var47 = 0.02606346677306159;
    }
    double var48;
    if (input[3] > 0.04757811467434294) {
        var48 = -0.043094916172812366;
    } else {
        var48 = 0.02695849955043372;
    }
    double var49;
    if (input[1] > 0.8207142857142858) {
        var49 = -0.043054758400993126;
    } else {
        var49 = 0.027081844165747295;
    }
    double var50;
    if (input[4] > 27.016645326504484) {
        var50 = -0.0369456851830453;
    } else {
        var50 = 0.029587691621895996;
    }
    double var51;
    if (input[3] > 0.04669593298037738) {
        var51 = -0.03435163438670524;
    } else {
        var51 = 0.031857381062459035;
    }
    double var52;
    if (input[3] > 0.04757811467434294) {
        var52 = -0.04098112162351808;
    } else {
        var52 = 0.0250006121649536;
    }
    double var53;
    if (input[1] > 0.8207142857142858) {
        var53 = -0.04223746978566936;
    } else {
        var53 = 0.026318486895356957;
    }
    double var54;
    if (input[5] > 73.51027154755617) {
        var54 = 0.023755125600007948;
    } else {
        var54 = -0.043465315888548746;
    }
    double var55;
    if (input[4] > 27.016645326504484) {
        var55 = -0.03529719913636974;
    } else {
        var55 = 0.027904543572874748;
    }
    double var56;
    if (input[5] > 73.51027154755617) {
        var56 = 0.022865361242426552;
    } else {
        var56 = -0.04233167169541113;
    }
    double var57;
    if (input[3] > 0.04757811467434294) {
        var57 = -0.03993656391089708;
    } else {
        var57 = 0.024077902894807438;
    }
    double var58;
    if (input[5] > 73.51027154755617) {
        var58 = 0.022082198393323812;
    } else {
        var58 = -0.041241550791022596;
    }
    double var59;
    if (input[3] > 0.04757811467434294) {
        var59 = -0.038913279893491665;
    } else {
        var59 = 0.023255940469806877;
    }
    double var60;
    if (input[4] > 26.352339181286553) {
        var60 = -0.028860311289747972;
    } else {
        var60 = 0.030588180702487706;
    }
    double var61;
    if (input[5] > 73.51027154755617) {
        var61 = 0.02138331313260651;
    } else {
        var61 = -0.0402781858078759;
    }
    double var62;
    if (input[10] > 0.0032863694054072927) {
        var62 = 0.03382403969467174;
    } else {
        var62 = -0.025635098962473204;
    }
    double var63;
    if (input[3] > 0.04757811467434294) {
        var63 = -0.03790559253415343;
    } else {
        var63 = 0.022184587059987534;
    }
    double var64;
    if (input[4] > 27.016645326504484) {
        var64 = -0.03261942333180842;
    } else {
        var64 = 0.02518895948870474;
    }
    double var65;
    if (input[10] > 0.0032863694054072927) {
        var65 = 0.033139117557636766;
    } else {
        var65 = -0.025301143563264097;
    }
    double var66;
    if (input[3] > 0.04757811467434294) {
        var66 = -0.03688479117198276;
    } else {
        var66 = 0.021082465468338862;
    }
    double var67;
    if (input[10] > 0.0032863694054072927) {
        var67 = 0.031935827816295684;
    } else {
        var67 = -0.02442773345262377;
    }
    double var68;
    if (input[0] > 0.8170725783271057) {
        var68 = -0.033542679362695386;
    } else {
        var68 = 0.023081987569472384;
    }
    double var69;
    if (input[4] > 27.016645326504484) {
        var69 = -0.031783844891236486;
    } else {
        var69 = 0.024080357614854705;
    }
    double var70;
    if (input[10] > 0.0032863694054072927) {
        var70 = 0.031186982276899207;
    } else {
        var70 = -0.024089245602210548;
    }
    double var71;
    if (input[3] > 0.04669593298037738) {
        var71 = -0.028452346737377857;
    } else {
        var71 = 0.025814682160671405;
    }
    double var72;
    if (input[4] > 27.016645326504484) {
        var72 = -0.0309897745975309;
    } else {
        var72 = 0.02325390814757393;
    }
    double var73;
    if (input[10] > 0.0032863694054072927) {
        var73 = 0.030619934146754398;
    } else {
        var73 = -0.023879557654582904;
    }
    double var74;
    if (input[0] > 0.8119246031746034) {
        var74 = -0.02876545660516598;
    } else {
        var74 = 0.025525965258483763;
    }
    double var75;
    if (input[10] > 0.0032863694054072927) {
        var75 = 0.029525494441437747;
    } else {
        var75 = -0.023167772588159254;
    }
    double var76;
    if (input[0] > 0.8119246031746034) {
        var76 = -0.027964416333828315;
    } else {
        var76 = 0.024607278578675677;
    }
    double var77;
    if (input[4] > 27.016645326504484) {
        var77 = -0.030454814606815622;
    } else {
        var77 = 0.022494726286362562;
    }
    double var78;
    if (input[3] > 0.04757811467434294) {
        var78 = -0.03582014309211716;
    } else {
        var78 = 0.01927095560552082;
    }
    double var79;
    if (input[10] > 0.0032863694054072927) {
        var79 = 0.029368431561127922;
    } else {
        var79 = -0.023442140803075703;
    }
    double var80;
    if (input[0] > 0.8119246031746034) {
        var80 = -0.0274486915110399;
    } else {
        var80 = 0.023884618698501836;
    }
    double var81;
    if (input[10] > 0.0032863694054072927) {
        var81 = 0.028331906588370342;
    } else {
        var81 = -0.022731738423126827;
    }
    double var82;
    if (input[4] > 27.016645326504484) {
        var82 = -0.029806703368249945;
    } else {
        var82 = 0.021585122129376688;
    }
    double var83;
    if (input[3] > 0.04757811467434294) {
        var83 = -0.03525547571020113;
    } else {
        var83 = 0.01838606711659636;
    }
    double var84;
    if (input[0] > 0.8170725783271057) {
        var84 = -0.030890250887717338;
    } else {
        var84 = 0.020354685271749582;
    }
    double var85;
    if (input[10] > 0.0032863694054072927) {
        var85 = 0.028082885926174903;
    } else {
        var85 = -0.022868761630658988;
    }
    double var86;
    if (input[3] > 0.04669593298037738) {
        var86 = -0.0261587638931038;
    } else {
        var86 = 0.022893393830175638;
    }
    double var87;
    if (input[10] > 0.0032863694054072927) {
        var87 = 0.027090145215350643;
    } else {
        var87 = -0.02214399624391558;
    }
    double var88;
    if (input[4] > 27.016645326504484) {
        var88 = -0.029216840061791094;
    } else {
        var88 = 0.020747646436337374;
    }
    double var89;
    if (input[1] > 0.8146428571428573) {
        var89 = -0.030280559881362475;
    } else {
        var89 = 0.01972568953218732;
    }
    double var90;
    if (input[10] > 0.0032863694054072927) {
        var90 = 0.026371090279659573;
    } else {
        var90 = -0.02161422883659801;
    }
    double var91;
    if (input[0] > 0.8119246031746034) {
        var91 = -0.026264047266540774;
    } else {
        var91 = 0.021914459486251744;
    }
    double var92;
    if (input[4] > 27.016645326504484) {
        var92 = -0.028582838867614903;
    } else {
        var92 = 0.020064846440135686;
    }
    double var93;
    if (input[3] > 0.04669593298037738) {
        var93 = -0.0255573475029539;
    } else {
        var93 = 0.022044917886962053;
    }
    double var94;
    if (input[10] > 0.0032863694054072927) {
        var94 = 0.026309681300730987;
    } else {
        var94 = -0.02197411554908983;
    }
    double var95;
    if (input[4] > 27.016645326504484) {
        var95 = -0.0279450095879754;
    } else {
        var95 = 0.01944029459917673;
    }
    double var96;
    if (input[10] > 0.0032863694054072927) {
        var96 = 0.025633738913082623;
    } else {
        var96 = -0.021351006466649895;
    }
    double var97;
    if (input[0] > 0.8119246031746034) {
        var97 = -0.025793271153103987;
    } else {
        var97 = 0.021197564120792094;
    }
    double var98;
    if (input[3] > 0.04669593298037738) {
        var98 = -0.024824505766538683;
    } else {
        var98 = 0.021143495712334683;
    }
    double var99;
    if (input[10] > 0.0032863694054072927) {
        var99 = 0.025058878079606984;
    } else {
        var99 = -0.021168287524746858;
    }
    double var100;
    if (input[4] > 27.016645326504484) {
        var100 = -0.0276875771969901;
    } else {
        var100 = 0.018989688635668633;
    }
    double var101;
    if (input[1] > 0.8146428571428573) {
        var101 = -0.028420885721634544;
    } else {
        var101 = 0.017924727528009395;
    }
    double var102;
    if (input[10] > 0.0032863694054072927) {
        var102 = 0.02442849218905807;
    } else {
        var102 = -0.02066207041784005;
    }
    double var103;
    if (input[3] > 0.04669593298037738) {
        var103 = -0.02458306172916741;
    } else {
        var103 = 0.020533297955545007;
    }
    double var104;
    if (input[4] > 27.016645326504484) {
        var104 = -0.027129063474673698;
    } else {
        var104 = 0.018413943440475793;
    }
    double var105;
    if (input[10] > 0.0032863694054072927) {
        var105 = 0.02412348824809847;
    } else {
        var105 = -0.02055140671372689;
    }
    double var106;
    if (input[0] > 0.8119246031746034) {
        var106 = -0.02471803467796277;
    } else {
        var106 = 0.019865038093679496;
    }
    double var107;
    if (input[4] > 27.016645326504484) {
        var107 = -0.02655084257838632;
    } else {
        var107 = 0.01787041833689455;
    }
    double var108;
    if (input[10] > 0.0032863694054072927) {
        var108 = 0.02384847225891513;
    } else {
        var108 = -0.02046001535056419;
    }
    double var109;
    if (input[3] > 0.04669593298037738) {
        var109 = -0.02396040030450079;
    } else {
        var109 = 0.019732615399590953;
    }
    double var110;
    if (input[10] > 0.0032863694054072927) {
        var110 = 0.02303003421775014;
    } else {
        var110 = -0.019816284355787746;
    }
    double var111;
    if (input[0] > 0.8119246031746034) {
        var111 = -0.024153085189044153;
    } else {
        var111 = 0.019168739483519014;
    }
    double var112;
    if (input[4] > 27.016645326504484) {
        var112 = -0.02638907848314387;
    } else {
        var112 = 0.01752856694393051;
    }
    double var113;
    if (input[10] > 0.0032863694054072927) {
        var113 = 0.022804082295301547;
    } else {
        var113 = -0.019754475470997016;
    }
    double var114;
    if (input[3] > 0.04669593298037738) {
        var114 = -0.023278638096439683;
    } else {
        var114 = 0.018936252436636748;
    }
    double var115;
    if (input[4] > 27.016645326504484) {
        var115 = -0.025841743179624954;
    } else {
        var115 = 0.017028175675958504;
    }
    double var116;
    if (input[10] > 0.0032863694054072927) {
        var116 = 0.022554199147940088;
    } else {
        var116 = -0.019663090187484054;
    }
    double var117;
    if (input[0] > 0.8119246031746034) {
        var117 = -0.023690553681847405;
    } else {
        var117 = 0.01854338818201542;
    }
    double var118;
    if (input[4] > 27.016645326504484) {
        var118 = -0.025311318085288827;
    } else {
        var118 = 0.016550850073840852;
    }
    double var119;
    if (input[10] > 0.0032863694054072927) {
        var119 = 0.02233571942421134;
    } else {
        var119 = -0.019591870644125237;
    }
    double var120;
    if (input[1] > 0.8146428571428573) {
        var120 = -0.026345313474985657;
    } else {
        var120 = 0.01582990037072952;
    }
    double var121;
    if (input[3] > 0.04669593298037738) {
        var121 = -0.022773648276697176;
    } else {
        var121 = 0.018240605652739512;
    }
    double var122;
    if (input[9] > 0.0009077568927896889) {
        var122 = 0.024944997525982376;
    } else {
        var122 = -0.016804791780392785;
    }
    double var123;
    if (input[4] > 27.016645326504484) {
        var123 = -0.025252887712995265;
    } else {
        var123 = 0.016306603693461545;
    }
    double var124;
    if (input[10] > 0.0032863694054072927) {
        var124 = 0.021679236922096914;
    } else {
        var124 = -0.01898434608827182;
    }
    double var125;
    if (input[3] > 0.04669593298037738) {
        var125 = -0.022673435366713207;
    } else {
        var125 = 0.017882115488392053;
    }
    double var126;
    if (input[9] > 0.0009077568927896889) {
        var126 = 0.024494541074063406;
    } else {
        var126 = -0.01637832364099732;
    }
    double var127;
    if (input[4] > 27.016645326504484) {
        var127 = -0.02514522757443065;
    } else {
        var127 = 0.016061065223563903;
    }
    double var128;
    if (input[10] > 0.0024110824272264094) {
        var128 = 0.015779325172612404;
    } else {
        var128 = -0.02483748243674229;
    }
    double var129;
    if (input[3] > 0.04669593298037738) {
        var129 = -0.02248143967470566;
    } else {
        var129 = 0.0175034091433297;
    }
    double var130;
    if (input[4] > 27.016645326504484) {
        var130 = -0.02464531434982121;
    } else {
        var130 = 0.015692422811555935;
    }
    double var131;
    if (input[9] > 0.0009077568927896889) {
        var131 = 0.024559779865836694;
    } else {
        var131 = -0.016458626581823448;
    }
    double var132;
    if (input[3] > 0.04669593298037738) {
        var132 = -0.022069736338799634;
    } else {
        var132 = 0.017087468731478633;
    }
    double var133;
    if (input[9] > 0.0009077568927896889) {
        var133 = 0.02397045604046827;
    } else {
        var133 = -0.016058509280916615;
    }
    double var134;
    if (input[4] > 27.016645326504484) {
        var134 = -0.024563290783584688;
    } else {
        var134 = 0.015470955377257506;
    }
    double var135;
    if (input[10] > 0.0024110824272264094) {
        var135 = 0.015714134323833336;
    } else {
        var135 = -0.024582049215982144;
    }
    double var136;
    if (input[3] > 0.04669593298037738) {
        var136 = -0.021908888540603938;
    } else {
        var136 = 0.016741231340017922;
    }
    double var137;
    if (input[10] > 0.0032863694054072927) {
        var137 = 0.020622473620453167;
    } else {
        var137 = -0.01790409476320035;
    }
    double var138;
    if (input[4] > 27.016645326504484) {
        var138 = -0.02451066474241904;
    } else {
        var138 = 0.01534573034019497;
    }
    double var139;
    if (input[9] > 0.0009077568927896889) {
        var139 = 0.02360806107809737;
    } else {
        var139 = -0.01565872717801745;
    }
    double var140;
    if (input[3] > 0.04669593298037738) {
        var140 = -0.021839991898769544;
    } else {
        var140 = 0.016431444976640255;
    }
    double var141;
    if (input[4] > 27.016645326504484) {
        var141 = -0.024015767502953034;
    } else {
        var141 = 0.014925178830144454;
    }
    double var142;
    if (input[9] > 0.0009077568927896889) {
        var142 = 0.023638599806831955;
    } else {
        var142 = -0.015725050493731553;
    }
    double var143;
    if (input[9] > 0.0005007911576032572) {
        var143 = -0.013894525572607475;
    } else {
        var143 = 0.025457036321666078;
    }
    double var144;
    if (input[10] > 0.0024110824272264094) {
        var144 = 0.015494062147613862;
    } else {
        var144 = -0.0240171244667252;
    }
    double var145;
    if (input[4] > 27.016645326504484) {
        var145 = -0.023502786136364404;
    } else {
        var145 = 0.014554283961503807;
    }
    double var146;
    if (input[9] > 0.0009077568927896889) {
        var146 = 0.023222966416417322;
    } else {
        var146 = -0.0154693400722592;
    }
    double var147;
    if (input[3] > 0.04669593298037738) {
        var147 = -0.021883152583240074;
    } else {
        var147 = 0.01619176422396601;
    }
    double var148;
    if (input[10] > 0.0032863694054072927) {
        var148 = 0.020257819721220583;
    } else {
        var148 = -0.017283391691714;
    }
    double var149;
    if (input[9] > 0.0005007911576032572) {
        var149 = -0.013924890014692435;
    } else {
        var149 = 0.02543689720323792;
    }
    double var150;
    if (input[9] > 0.0009077568927896889) {
        var150 = 0.022905296819920384;
    } else {
        var150 = -0.015239985798483298;
    }
    double var151;
    if (input[9] > 0.0005007911576032572) {
        var151 = -0.013674221653734178;
    } else {
        var151 = 0.0250726899214138;
    }
    double var152;
    if (input[10] > 0.0024110824272264094) {
        var152 = 0.014973347748519614;
    } else {
        var152 = -0.022984664725166932;
    }
    double var153;
    if (input[7] > 0.0001430694038659755) {
        var153 = -0.023279334271608745;
    } else {
        var153 = 0.014441713130744625;
    }
    double var154;
    if (input[3] > 0.04669593298037738) {
        var154 = -0.02137631346343104;
    } else {
        var154 = 0.015592335180350468;
    }
    double var155;
    if (input[9] > 0.0009077568927896889) {
        var155 = 0.022573145153074733;
    } else {
        var155 = -0.015008852158802136;
    }
    double var156;
    if (input[9] > 0.0005007911576032572) {
        var156 = -0.013736276170305728;
    } else {
        var156 = 0.024918006107144574;
    }
    double var157;
    if (input[10] > 0.0024110824272264094) {
        var157 = 0.01480878374624538;
    } else {
        var157 = -0.022712426339861872;
    }
    double var158;
    if (input[4] > 27.016645326504484) {
        var158 = -0.023680481758719285;
    } else {
        var158 = 0.014334526960458656;
    }
    double var159;
    if (input[9] > 0.0009077568927896889) {
        var159 = 0.022220666131850156;
    } else {
        var159 = -0.014785986667942123;
    }
    double var160;
    if (input[9] > 0.0005007911576032572) {
        var160 = -0.013614674504412477;
    } else {
        var160 = 0.02462236349957488;
    }
    double var161;
    if (input[10] > 0.0024110824272264094) {
        var161 = 0.014606941639999933;
    } else {
        var161 = -0.022166940244855646;
    }
    double var162;
    if (input[3] > 0.04669593298037738) {
        var162 = -0.021281465217799757;
    } else {
        var162 = 0.015265502253540576;
    }
    double var163;
    if (input[4] > 27.016645326504484) {
        var163 = -0.023201048940836123;
    } else {
        var163 = 0.01396413550611294;
    }
    double var164;
    if (input[9] > 0.0009077568927896889) {
        var164 = 0.022421562393701043;
    } else {
        var164 = -0.01502593501010565;
    }
    double var165;
    if (input[9] > 0.0005007911576032572) {
        var165 = -0.013351069101088223;
    } else {
        var165 = 0.02418999971186459;
    }
    double var166;
    if (input[10] > 0.0032863694054072927) {
        var166 = 0.019871731521498782;
    } else {
        var166 = -0.0163753188783264;
    }
    double var167;
    if (input[0] > 0.8119246031746034) {
        var167 = -0.021819052641756386;
    } else {
        var167 = 0.014485664641041921;
    }
    double var168;
    if (input[9] > 0.0005007911576032572) {
        var168 = -0.013044635916298432;
    } else {
        var168 = 0.023904294102372384;
    }
    double var169;
    if (input[9] > 0.0009077568927896889) {
        var169 = 0.022033014539836766;
    } else {
        var169 = -0.014917041277510562;
    }
    double var170;
    if (input[10] > 0.0024110824272264094) {
        var170 = 0.014317345077412606;
    } else {
        var170 = -0.021653790192124836;
    }
    double var171;
    if (input[4] > 27.016645326504484) {
        var171 = -0.023207290461134;
    } else {
        var171 = 0.013810449388090696;
    }
    double var172;
    if (input[3] > 0.04669593298037738) {
        var172 = -0.02099841826483308;
    } else {
        var172 = 0.014818861262475391;
    }
    double var173;
    if (input[9] > 0.0009077568927896889) {
        var173 = 0.021613314221605326;
    } else {
        var173 = -0.014573796441720008;
    }
    double var174;
    if (input[9] > 0.0005007911576032572) {
        var174 = -0.01323393157648305;
    } else {
        var174 = 0.02403898318909966;
    }
    double var175;
    if (input[10] > 0.0024110824272264094) {
        var175 = 0.014350974056307057;
    } else {
        var175 = -0.021627781620651654;
    }
    double var176;
    if (input[7] > 0.0001430694038659755) {
        var176 = -0.023266843380112003;
    } else {
        var176 = 0.013480181420392985;
    }
    double var177;
    if (input[9] > 0.0005007911576032572) {
        var177 = -0.013013653947532755;
    } else {
        var177 = 0.023529996224849494;
    }
    double var178;
    if (input[10] > 0.0032863694054072927) {
        var178 = 0.01960832079783008;
    } else {
        var178 = -0.015877811857692225;
    }
    double var179;
    if (input[9] > 0.0008081033229928339) {
        var179 = -0.018388823141840305;
    } else {
        var179 = 0.016315592553231142;
    }
    double var180;
    if (input[9] > 0.0009077568927896889) {
        var180 = 0.021822659941749714;
    } else {
        var180 = -0.01469666971404187;
    }
    double var181;
    if (input[4] > 27.016645326504484) {
        var181 = -0.022626013258874755;
    } else {
        var181 = 0.013245452299536479;
    }
    double var182;
    if (input[9] > 0.0009077568927896889) {
        var182 = 0.021361773963692154;
    } else {
        var182 = -0.014314841395854344;
    }
    double var183;
    if (input[9] > 0.0008081033229928339) {
        var183 = -0.019015072054868243;
    } else {
        var183 = 0.016744653564407453;
    }
    double var184;
    if (input[9] > 0.0009077568927896889) {
        var184 = 0.021252688028837154;
    } else {
        var184 = -0.014265556703537869;
    }
    double var185;
    if (input[9] > 0.0008081033229928339) {
        var185 = -0.01890874552811206;
    } else {
        var185 = 0.016637310031867414;
    }
    double var186;
    if (input[9] > 0.0009077568927896889) {
        var186 = 0.021143651714777008;
    } else {
        var186 = -0.014214824163980708;
    }
    double var187;
    if (input[9] > 0.0008081033229928339) {
        var187 = -0.018803557632086923;
    } else {
        var187 = 0.016532273873629256;
    }
    double var188;
    if (input[9] > 0.0009077568927896889) {
        var188 = 0.021034715666691167;
    } else {
        var188 = -0.014162713748627457;
    }
    double var189;
    if (input[9] > 0.0008081033229928339) {
        var189 = -0.018699347103014755;
    } else {
        var189 = 0.016429399041554608;
    }
    double var190;
    if (input[10] > 0.0024110824272264094) {
        var190 = 0.014136165770287243;
    } else {
        var190 = -0.02094856235437466;
    }
    double var191;
    if (input[3] > 0.04669593298037738) {
        var191 = -0.02080822186351492;
    } else {
        var191 = 0.014160476062712563;
    }
    double var192;
    if (input[9] > 0.0009077568927896889) {
        var192 = 0.02096693499116914;
    } else {
        var192 = -0.014136702856083079;
    }
    double var193;
    if (input[9] > 0.0008081033229928339) {
        var193 = -0.018641362709423907;
    } else {
        var193 = 0.016336638520970517;
    }
    double var194;
    if (input[8] > 0.0007015273619649158) {
        var194 = 0.014731976493558362;
    } else {
        var194 = -0.024429015526667822;
    }
    double var195;
    if (input[4] > 27.016645326504484) {
        var195 = -0.022748015669702012;
    } else {
        var195 = 0.013314660577553334;
    }
    double var196;
    if (input[8] > 0.0007015273619649158) {
        var196 = 0.014416580841335217;
    } else {
        var196 = -0.02362898806334044;
    }
    double var197;
    if (input[9] > 0.0009077568927896889) {
        var197 = 0.021075594382814283;
    } else {
        var197 = -0.01422101348185568;
    }
    double var198;
    if (input[9] > 0.0008081033229928339) {
        var198 = -0.018491459451076452;
    } else {
        var198 = 0.016301606209370184;
    }
    double var199;
    if (input[8] > 0.0007015273619649158) {
        var199 = 0.013757407775839552;
    } else {
        var199 = -0.022202980346275904;
    }
    double var200;
    var200 = sigmoid(var0 + var1 + var2 + var3 + var4 + var5 + var6 + var7 + var8 + var9 + var10 + var11 + var12 + var13 + var14 + var15 + var16 + var17 + var18 + var19 + var20 + var21 + var22 + var23 + var24 + var25 + var26 + var27 + var28 + var29 + var30 + var31 + var32 + var33 + var34 + var35 + var36 + var37 + var38 + var39 + var40 + var41 + var42 + var43 + var44 + var45 + var46 + var47 + var48 + var49 + var50 + var51 + var52 + var53 + var54 + var55 + var56 + var57 + var58 + var59 + var60 + var61 + var62 + var63 + var64 + var65 + var66 + var67 + var68 + var69 + var70 + var71 + var72 + var73 + var74 + var75 + var76 + var77 + var78 + var79 + var80 + var81 + var82 + var83 + var84 + var85 + var86 + var87 + var88 + var89 + var90 + var91 + var92 + var93 + var94 + var95 + var96 + var97 + var98 + var99 + var100 + var101 + var102 + var103 + var104 + var105 + var106 + var107 + var108 + var109 + var110 + var111 + var112 + var113 + var114 + var115 + var116 + var117 + var118 + var119 + var120 + var121 + var122 + var123 + var124 + var125 + var126 + var127 + var128 + var129 + var130 + var131 + var132 + var133 + var134 + var135 + var136 + var137 + var138 + var139 + var140 + var141 + var142 + var143 + var144 + var145 + var146 + var147 + var148 + var149 + var150 + var151 + var152 + var153 + var154 + var155 + var156 + var157 + var158 + var159 + var160 + var161 + var162 + var163 + var164 + var165 + var166 + var167 + var168 + var169 + var170 + var171 + var172 + var173 + var174 + var175 + var176 + var177 + var178 + var179 + var180 + var181 + var182 + var183 + var184 + var185 + var186 + var187 + var188 + var189 + var190 + var191 + var192 + var193 + var194 + var195 + var196 + var197 + var198 + var199);
    memcpy(output, (double[]){1.0 - var200, var200}, 2 * sizeof(double));
}
